1.376558561241776057e-01 -4.837215747664245363e-03 -1.728766063519945051e-01 -1.360618189066864214e-01 -1.367305845675634568e-01 -2.421799042695048365e-02 3.931889805204782234e-02 -1.111089902870915358e-01 1.793334370151135337e-01 -6.210053259861583741e-02 2.431440735254589147e-01 4.449052755304272466e-02 2.923976693174719713e-02 -8.125494303157100584e-02 1.853365786622308276e-01 -3.803485818967487497e-01
1.036479160599614452e-01 1.466032566692717087e-01 1.732194362763673223e-01 3.727966913455326575e-02 6.021941641049242122e-01 3.272197122301525457e-02 -3.927774669840679023e-01 2.018250264691390141e-04 4.194270223047149443e-02 -1.586724054107679915e-01 3.259617075621715765e-01 -5.429990423696018365e-02 -2.073306927169645819e-01 3.470161530525227994e-02 3.175783561214596401e-02 9.685593781713594530e-02
-5.280604297876261288e-01 -1.644607314863344161e-01 7.740342528546671763e-02 2.325098840149032453e-01 5.957309811094346763e-02 -1.601186288866155438e-01 -2.894982431472810716e-02 1.922412584657102186e-01 1.535665533029377805e-01 1.472244357280534099e-01 2.651959289020288657e-01 3.086022486796160536e-01 -2.266385663337061596e-01 -1.328148602187963767e-01 2.562031578986283531e-01 -3.094748974781224571e-01
1.978294099513406845e-01 -2.990353515721999034e-01 2.267521532071130608e-01 2.391578357721028600e-02 3.301518756080420308e-02 7.585545255423113697e-02 -1.855071609626682549e-01 2.663339444939493150e-01 2.382189896298962106e-01 -3.965632246027812613e-01 3.787278112560996668e-01 -1.854572199651317588e-01 -2.749050346300800918e-01 -2.481874884947485593e-01 1.408491159425173667e-01 -6.632020833246582425e-01
-1.052496801406666710e-01 -1.181788537769593167e-01 -8.661223696249226167e-02 -2.910845624509247886e-01 -7.856293396413624452e-03 1.398444010830774548e-02 -9.676639841431634859e-02 2.194759233910725527e-01 -1.985331323242404689e-01 -4.641413409364820997e-02 7.709341808409475583e-02 -3.206775816747824970e-01 -4.290388590631195043e-01 4.111393620047747860e-02 1.745596703846007958e-01 3.565602499549556104e-01
-1.573326530718514860e-02 7.119009960640194923e-03 -1.442353966707073942e-01 6.913852936861439313e-02 -2.528367135399418042e-01 1.148061522159289916e-01 -2.328436446247069899e-02 -1.650773649224740458e-01 9.329790576881018260e-02 1.374971517568882584e-01 4.520609636328387082e-01 3.348609159358425374e-02 -5.134848792200239626e-02 6.135672496473235094e-02 6.357716254558241908e-02 7.776930671886801011e-03
5.039620218353503267e-01 2.655216549896616818e-01 1.958807002756456361e-01 3.538626860338946883e-02 3.529686706249558770e-02 -1.017879857658142567e-01 -3.134229208223082153e-01 -9.913120764028990339e-03 3.220975040917887946e-04 -8.336728949510273379e-02 2.207230120051780209e-01 7.877964086167067725e-02 3.703588834688963799e-02 9.297584454419353939e-02 -2.395968704813275785e-01 -5.890349299812527861e-02
-2.017699663909724994e-01 2.001624449470470468e-01 -1.270176805033971512e-01 -2.624723547563780346e-01 5.901855769685700193e-02 2.492235804568060653e-01 -2.663827798751223774e-01 2.128690528667622761e-01 -3.506180535061338699e-02 -1.348154319959349867e-01 2.926095228176670004e-01 2.413411387368163963e-01 -2.375638676931342008e-01 2.433625750210546002e-01 5.287810721893854149e-02 6.167906347628827890e-02
-1.612117962229149548e-01 -7.518978644041336701e-02 3.220522036709561609e-01 -1.287928255406456390e-01 2.867263426177610874e-01 5.542154587182895886e-01 -1.405420198039125657e-01 1.135598751318412786e-01 2.145548443421240459e-01 3.651851745785208297e-02 -3.221439399163045780e-01 2.375355093614299473e-02 1.363592498548739929e-01 1.793626914949485729e-01 -1.960740026173738437e-01 7.867022248351820957e-02
7.524110754405133328e-02 3.269987080134483803e-01 2.221866825130012213e-01 7.931376846291947336e-02 3.077958009114571958e-01 1.424339640031400678e-01 -8.866527303215848699e-02 1.017188234275900743e-01 7.806598336612526577e-03 1.119878712211599958e-01 4.324763342193840288e-01 -1.006234209633152243e-01 1.600029621863202356e-01 3.163816549039395465e-01 4.565826844842546528e-01 2.182918153005167228e-01
-6.334372023851723987e-02 -1.832283823113429466e-01 -1.708628621135283299e-01 -4.825338300661264346e-01 8.571837526090252124e-02 -4.845983176067843873e-02 -1.425300990581288008e-02 -7.667708032860376388e-02 1.201771709579991555e-02 -8.822096674440266240e-02 -1.563861177882677408e-02 -3.240090170331843406e-02 6.671528132170348457e-02 3.216276256066284978e-01 1.210657192124621473e-01 4.107720822412367495e-02
-2.364099682228137655e-01 -3.280541926374069134e-02 2.871760213781430759e-01 -2.790252794306302339e-02 3.937659313001315997e-01 2.107933563345419925e-01 -2.218342002395146118e-01 -4.811304550957255788e-02 1.086508756499817707e-01 1.968160297871592856e-01 -3.839470452457655752e-02 -9.056179895777641264e-02 2.372628624808411635e-01 1.587013058474389116e-01 3.390146057823021919e-01 -1.037202898198576889e-01
-2.667951977330143554e-01 2.275023941613473488e-01 1.243388286601214282e-01 -4.857839278537391670e-02 -1.987053664952849741e-01 -1.721014877761339879e-01 -1.125222388666350243e-01 -3.717748181684814579e-01 2.202396472894680712e-01 1.434915860638080742e-01 -1.034863036631075150e-01 -1.643279621607278695e-01 -8.785068880889056187e-03 5.389343794785975694e-01 7.381991611440952283e-02 4.876576454852655368e-02
-1.853270467134076616e-01 -1.706066732896837634e-01 3.232680666511518197e-01 -9.390640369672394183e-02 7.254140254781313302e-02 -2.627210907973758988e-02 -5.589171616372121815e-02 -9.157104014691767879e-02 1.475325366756866097e-01 -2.375077523622181330e-01 1.974099794864349611e-01 6.772054275440211879e-04 -2.947396024134376069e-01 -1.846312327205565096e-01 -8.818611621052895033e-02 -1.933552276425667127e-01
-2.414902089625667048e-01 7.778553453690317809e-02 3.376904694531075446e-01 3.685526252704384581e-02 -1.317170252231703587e-01 -7.780499285076182547e-02 -3.479293319109586641e-02 5.726858481145608026e-02 3.907632038299752031e-01 8.015829009475311517e-02 2.337317927010299778e-01 6.743740011783162791e-02 3.910570079511231645e-02 -8.669837292307615295e-02 -7.042510714691349594e-02 2.374389225184014851e-01
1.790177644437793703e-01 2.320456478221569752e-01 4.289978882776186025e-02 -8.420485301337893302e-02 2.635199495147871329e-01 -1.920396623652437518e-01 -1.413488394077427324e-01 4.369014134765847324e-02 4.923717615689568450e-02 -2.125269230943573895e-01 -4.327455366000406561e-02 -1.591503309044883796e-01 5.633035663333763043e-01 4.839867698646627830e-03 2.969456717143384439e-01 3.879104710437682874e-02
